{
  "conv1.lin_l.weight": {
    "data": [
      [
        -17089,
        -9692,
        -2102,
        10132,
        -293,
        -15522,
        4330,
        5669,
        768,
        5877,
        -2896,
        -4504,
        3571,
        569,
        -4207
      ],
      [
        3328,
        3655,
        9216,
        -2492,
        -8395,
        3506,
        4866,
        10329,
        -18717,
        -5834,
        -1213,
        2546,
        -2059,
        -2793,
        -5173
      ],
      [
        -1656,
        5656,
        -3229,
        -18174,
        3777,
        8168,
        -18534,
        -6325,
        7328,
        -1665,
        -6388,
        -1874,
        -5752,
        -8742,
        -10547
      ],
      [
        -7352,
        -8118,
        -132,
        4745,
        4858,
        2954,
        -3246,
        6639,
        4188,
        -10739,
        1110,
        3716,
        1941,
        1597,
        -4577
      ],
      [
        1789,
        -8821,
        -7258,
        -6997,
        8255,
        362,
        9067,
        11163,
        -1501,
        -2189,
        5851,
        -4215,
        238,
        -4616,
        10624
      ],
      [
        6825,
        1157,
        60,
        -693,
        5236,
        -10874,
        -4483,
        -4398,
        2307,
        -3037,
        -2426,
        4200,
        3889,
        -10258,
        -4551
      ],
      [
        -8883,
        -1544,
        65,
        -3391,
        -6697,
        10332,
        6287,
        8181,
        1782,
        922,
        10041,
        4437,
        -8849,
        -3815,
        -5357
      ],
      [
        -10189,
        2369,
        -1584,
        4422,
        1740,
        -957,
        -7737,
        -9433,
        2914,
        6179,
        6935,
        -105,
        -2757,
        -5493,
        133
      ],
      [
        3345,
        -14918,
        -1646,
        6095,
        -514,
        1129,
        4499,
        -6824,
        1803,
        -1166,
        -9043,
        11319,
        10203,
        -7929,
        3705
      ],
      [
        -5875,
        4311,
        -3426,
        -4221,
        -5281,
        16287,
        3654,
        6105,
        -4059,
        -1626,
        4753,
        2472,
        5807,
        -1481,
        -3475
      ],
      [
        -718,
        -8561,
        850,
        8072,
        -17317,
        -2552,
        -4300,
        10273,
        1811,
        2082,
        -2,
        1741,
        3322,
        -5734,
        -185
      ],
      [
        207,
        -9940,
        2993,
        -3857,
        -2023,
        -20852,
        -3611,
        4854,
        -4055,
        -3382,
        1512,
        121,
        3616,
        -4821,
        -1170
      ],
      [
        -3387,
        -32767,
        -1810,
        -3235,
        -3014,
        4214,
        5544,
        6796,
        4417,
        3578,
        5869,
        -9306,
        -7666,
        -5781,
        11604
      ],
      [
        -3727,
        -7340,
        4303,
        -8128,
        3018,
        -6160,
        -14030,
        2298,
        5334,
        4770,
        -6347,
        3677,
        -1786,
        -1965,
        -5781
      ],
      [
        -10742,
        -6878,
        -1043,
        1247,
        -3230,
        4780,
        1117,
        10013,
        6992,
        -2976,
        76,
        449,
        -4098,
        -2181,
        -927
      ],
      [
        6849,
        -7061,
        3868,
        -15,
        -1419,
        -21903,
        -827,
        10093,
        -2395,
        -1231,
        7294,
        -3910,
        -5982,
        -11115,
        11160
      ],
      [
        -14597,
        -11223,
        -1494,
        4818,
        6943,
        85,
        -58,
        4988,
        6,
        -7047,
        -1205,
        -1896,
        7024,
        -7543,
        165
      ],
      [
        9208,
        -1076,
        -13082,
        -8240,
        -11441,
        -21471,
        384,
        -4011,
        10002,
        599,
        1403,
        -6079,
        -14237,
        -12320,
        -409
      ],
      [
        -6425,
        17669,
        -9598,
        5446,
        1152,
        -17291,
        8101,
        28053,
        1355,
        3726,
        889,
        -7526,
        -2173,
        -5021,
        872
      ],
      [
        -3685,
        18428,
        -1671,
        -1203,
        -2097,
        -4634,
        5322,
        13383,
        622,
        -1742,
        462,
        6524,
        -933,
        -684,
        107
      ],
      [
        -8557,
        -5813,
        -1378,
        3920,
        7240,
        -5624,
        -3890,
        8896,
        1576,
        8975,
        -2019,
        -5117,
        2066,
        3994,
        3977
      ],
      [
        1639,
        -2094,
        5132,
        782,
        -7074,
        13828,
        -1065,
        -6159,
        6296,
        -5498,
        -10913,
        -1827,
        -12802,
        -7244,
        -9925
      ],
      [
        -2049,
        -13014,
        -2772,
        -8481,
        -2996,
        -17881,
        7335,
        -994,
        -373,
        -2387,
        -3472,
        -550,
        1979,
        -13515,
        3423
      ],
      [
        336,
        -9114,
        -14631,
        6111,
        -1330,
        12382,
        4470,
        4749,
        -4710,
        4930,
        -33,
        -160,
        -2250,
        -1219,
        8610
      ],
      [
        -2746,
        -11752,
        4902,
        -2241,
        2970,
        -12121,
        5586,
        -4933,
        -427,
        2257,
        -3649,
        1350,
        -5909,
        -10095,
        2978
      ],
      [
        -3329,
        -11393,
        2996,
        -9289,
        7130,
        -2207,
        8057,
        -5736,
        -3531,
        -640,
        6480,
        -5782,
        2433,
        -1201,
        -9085
      ],
      [
        2449,
        -10997,
        -447,
        4933,
        -3211,
        -6636,
        2383,
        -1569,
        1976,
        -1715,
        14507,
        -5653,
        9815,
        -4828,
        -3059
      ],
      [
        -3980,
        -5733,
        5320,
        12132,
        -5913,
        -21222,
        1524,
        -5424,
        -2254,
        1852,
        4561,
        -4868,
        3980,
        -9158,
        -1578
      ],
      [
        1184,
        1514,
        252,
        1925,
        -7327,
        -623,
        -2426,
        1475,
        -3045,
        357,
        -1473,
        1344,
        -475,
        -624,
        -2968
      ],
      [
        2390,
        4107,
        -1120,
        1407,
        -5934,
        -4189,
        -2549,
        -4655,
        -2455,
        -2296,
        -855,
        -3116,
        -1418,
        -4030,
        1708
      ],
      [
        3066,
        -3275,
        -15054,
        -2858,
        -8202,
        10195,
        -4478,
        10038,
        2367,
        2982,
        1783,
        -5810,
        -6068,
        1285,
        -1852
      ],
      [
        -6290,
        3856,
        -13979,
        7229,
        -2020,
        -10376,
        -10251,
        12190,
        1020,
        9,
        620,
        23,
        1356,
        3216,
        -874
      ],
      [
        -10063,
        -7201,
        3962,
        -5453,
        9809,
        -1015,
        822,
        8840,
        2658,
        -3667,
        7948,
        5230,
        -6317,
        -6541,
        4164
      ],
      [
        -7911,
        -10469,
        -12957,
        7091,
        -785,
        -29989,
        -15119,
        -6062,
        -9622,
        -4007,
        10855,
        5979,
        38,
        -4280,
        9709
      ],
      [
        -11078,
        11370,
        805,
        -10735,
        211,
        -7677,
        9348,
        -8272,
        -1010,
        -2085,
        -482,
        9998,
        -1313,
        4509,
        7629
      ],
      [
        -3401,
        -6252,
        -3828,
        -622,
        -110,
        10843,
        6379,
        6486,
        -4136,
        -2164,
        418,
        7047,
        -3066,
        -1121,
        -2162
      ],
      [
        5487,
        -7135,
        -5651,
        -825,
        871,
        9643,
        -6897,
        10295,
        7792,
        1517,
        -4177,
        -3068,
        3842,
        2387,
        -5492
      ],
      [
        -4348,
        -23082,
        5137,
        -12563,
        1888,
        18426,
        602,
        -4158,
        -7982,
        -6034,
        -1673,
        1851,
        -6712,
        -10556,
        -9053
      ],
      [
        7171,
        -16565,
        5827,
        3926,
        12759,
        -4209,
        -1427,
        526,
        -15067,
        -9912,
        -8178,
        -1310,
        -11665,
        -29870,
        1556
      ],
      [
        12626,
        -15917,
        3886,
        4477,
        4070,
        2314,
        -820,
        16082,
        4005,
        -8103,
        -2775,
        7521,
        -1204,
        3340,
        -2415
      ],
      [
        -11901,
        -2939,
        -1630,
        7320,
        4688,
        788,
        2695,
        -7767,
        -2809,
        2440,
        5124,
        -14564,
        13252,
        9085,
        -12061
      ],
      [
        -4953,
        -28359,
        1437,
        -3691,
        -7808,
        12508,
        -10656,
        -1000,
        5408,
        3096,
        3463,
        3690,
        4592,
        -4209,
        6198
      ],
      [
        -13865,
        -8472,
        -1147,
        1900,
        -1795,
        -20356,
        6208,
        8834,
        6522,
        -3850,
        2516,
        1300,
        7318,
        -7984,
        3773
      ],
      [
        -8187,
        18603,
        -15032,
        -6699,
        -3387,
        -10228,
        3252,
        -6562,
        -521,
        1040,
        -2156,
        755,
        11788,
        -6934,
        -1656
      ],
      [
        670,
        -16167,
        2037,
        3561,
        -5338,
        5906,
        -947,
        6693,
        743,
        -7521,
        2277,
        6642,
        5084,
        11539,
        -7026
      ],
      [
        2452,
        -13534,
        1249,
        1792,
        88,
        2442,
        1045,
        -6678,
        1007,
        3116,
        -4729,
        3728,
        -26124,
        -16230,
        4568
      ],
      [
        6225,
        -5875,
        -2545,
        -15742,
        -620,
        -2515,
        -1610,
        10304,
        3372,
        -6091,
        1581,
        4867,
        -844,
        -15225,
        14133
      ],
      [
        -3565,
        -1212,
        -4483,
        -6871,
        -793,
        -7200,
        5737,
        7684,
        -6586,
        -2778,
        -2862,
        4186,
        11426,
        -9708,
        6285
      ],
      [
        4675,
        2190,
        -5084,
        391,
        6588,
        17030,
        11547,
        3832,
        747,
        -705,
        4049,
        -4467,
        1509,
        544,
        -1075
      ],
      [
        818,
        -10341,
        -6518,
        4047,
        6313,
        -22582,
        -2333,
        6295,
        4516,
        1649,
        2874,
        -5617,
        -2758,
        -3706,
        1809
      ],
      [
        -4710,
        2168,
        -1,
        -15603,
        2799,
        10927,
        3425,
        -7418,
        660,
        -3736,
        -1394,
        -1444,
        -10986,
        -16391,
        -12556
      ],
      [
        5173,
        -7191,
        2343,
        -4461,
        4374,
        -32011,
        -4546,
        4215,
        779,
        -920,
        -3394,
        3363,
        -4786,
        -6574,
        3533
      ],
      [
        -569,
        4791,
        -3484,
        946,
        -1851,
        7235,
        5469,
        8824,
        1688,
        -1375,
        -244,
        563,
        806,
        1022,
        -738
      ],
      [
        5327,
        10567,
        5597,
        634,
        3196,
        4526,
        -4302,
        -4792,
        1186,
        -1936,
        -5499,
        4536,
        -14766,
        -25020,
        -11167
      ],
      [
        -345,
        -11232,
        -3250,
        -3253,
        12679,
        -3113,
        392,
        5351,
        -4886,
        217,
        4372,
        -3553,
        16317,
        -11906,
        5663
      ],
      [
        -303,
        -457,
        -5677,
        -279,
        -7926,
        -4757,
        -1526,
        -1646,
        1902,
        -5972,
        -1286,
        2630,
        3551,
        -2765,
        740
      ],
      [
        4297,
        -14670,
        -1259,
        2626,
        2195,
        -14918,
        409,
        6386,
        1049,
        -5886,
        8131,
        -3430,
        -3002,
        -13693,
        8842
      ],
      [
        -5294,
        -10033,
        -2428,
        6751,
        -439,
        -24125,
        -26017,
        -5324,
        -3622,
        -4141,
        3990,
        4610,
        2626,
        -2828,
        5083
      ],
      [
        -14679,
        5330,
        -6272,
        2645,
        4366,
        -10807,
        5923,
        -2085,
        1600,
        8725,
        4174,
        -8515,
        -1710,
        -1751,
        -1138
      ],
      [
        -4372,
        -7389,
        3712,
        -4184,
        11063,
        3914,
        -16906,
        2938,
        6078,
        -1959,
        2975,
        -380,
        -11549,
        3081,
        -2405
      ],
      [
        -1932,
        -6276,
        -33,
        3692,
        2077,
        -9597,
        4853,
        6599,
        6260,
        -3683,
        5868,
        -5328,
        -4667,
        -1869,
        3735
      ],
      [
        -1262,
        -1588,
        -1895,
        4969,
        3827,
        7924,
        -7700,
        8166,
        1592,
        -5096,
        2646,
        -2665,
        -9353,
        13102,
        -3961
      ],
      [
        -4686,
        3878,
        144,
        -1029,
        -6126,
        18981,
        -160,
        11054,
        5837,
        2980,
        -8369,
        4949,
        -897,
        3522,
        -4461
      ],
      [
        -6159,
        2703,
        -5324,
        906,
        962,
        -3822,
        883,
        -502,
        -2304,
        409,
        -4209,
        -3060,
        3243,
        1079,
        -5205
      ]
    ],
    "scale": 4.658541651878365e-05,
    "zero_point": 0,
    "shape": [
      64,
      15
    ],
    "type": "weight",
    "symmetric": true
  },
  "conv1.lin_l.bias": {
    "data": [
      -10753,
      -11122,
      2242,
      20207,
      -1120,
      17183,
      -14551,
      -13999,
      -2675,
      18865,
      -64,
      2448,
      -14789,
      -18652,
      11915,
      -7056,
      -8687,
      1711,
      -5592,
      24280,
      -10713,
      -3624,
      4395,
      -15204,
      -374,
      -30788,
      13084,
      10257,
      -1258,
      -21073,
      19708,
      -21255,
      -28757,
      -14608,
      -15439,
      22960,
      2092,
      5481,
      -2112,
      -615,
      -21033,
      -7017,
      6457,
      11223,
      12640,
      -4736,
      -351,
      10439,
      9758,
      -1089,
      -14155,
      501,
      32767,
      3637,
      -10017,
      -10052,
      6394,
      -6649,
      -20646,
      1091,
      -22379,
      -19484,
      20975,
      -21957
    ],
    "scale": 1.3729043230566735e-05,
    "zero_point": 0,
    "shape": [
      64
    ],
    "type": "bias",
    "symmetric": true
  },
  "conv1.lin_r.weight": {
    "data": [
      [
        425,
        7506,
        -2193,
        -6400,
        2140,
        -10119,
        1988,
        1822,
        3179,
        1407,
        -203,
        -1961,
        -768,
        4612,
        -5361
      ],
      [
        1595,
        7278,
        2409,
        923,
        298,
        9259,
        -5866,
        3570,
        2677,
        -851,
        -13937,
        5180,
        6062,
        -1020,
        -4385
      ],
      [
        -4936,
        -3235,
        -3847,
        -649,
        320,
        890,
        -13383,
        -4893,
        3901,
        -197,
        2438,
        67,
        -1087,
        -842,
        4847
      ],
      [
        -656,
        5007,
        3189,
        -3522,
        -5866,
        -2385,
        205,
        1847,
        2106,
        -5153,
        -1481,
        1758,
        -1455,
        -1830,
        -4967
      ],
      [
        -428,
        6701,
        -2527,
        -5601,
        2972,
        -14220,
        945,
        5673,
        2197,
        838,
        2473,
        -2290,
        -72,
        5427,
        -1279
      ],
      [
        -4279,
        -7849,
        -891,
        4196,
        488,
        9729,
        4774,
        -4607,
        -61,
        -7269,
        -8992,
        3042,
        2438,
        -549,
        -2879
      ],
      [
        -1521,
        3662,
        2227,
        -5686,
        464,
        16866,
        -2968,
        7016,
        176,
        -8412,
        2420,
        -10827,
        -2706,
        3212,
        352
      ],
      [
        -3086,
        5030,
        -1378,
        -6014,
        -3789,
        22316,
        -6123,
        -3111,
        -5517,
        -429,
        3074,
        -7063,
        -386,
        -555,
        7819
      ],
      [
        225,
        -13806,
        1423,
        4321,
        3360,
        6074,
        3920,
        -1811,
        2644,
        -7819,
        -15191,
        -3284,
        -32767,
        -16614,
        1920
      ],
      [
        -2276,
        5690,
        -1372,
        177,
        17,
        4582,
        -611,
        3390,
        -5333,
        -1242,
        1013,
        -9192,
        7732,
        1309,
        3238
      ],
      [
        -2148,
        11061,
        3231,
        -441,
        -4376,
        -5087,
        1488,
        6322,
        -504,
        -6859,
        7625,
        2558,
        -2880,
        4209,
        -1508
      ],
      [
        -50,
        12747,
        -1205,
        512,
        3046,
        -17902,
        1871,
        4574,
        508,
        2154,
        -937,
        73,
        -5396,
        -3682,
        2514
      ],
      [
        -2358,
        -5506,
        1291,
        -4714,
        6357,
        5618,
        -97,
        4036,
        1022,
        -6542,
        3049,
        105,
        -285,
        -5214,
        413
      ],
      [
        -1137,
        -2904,
        -3501,
        5692,
        -3845,
        -7526,
        -8924,
        -1099,
        562,
        -6522,
        -5460,
        2334,
        2,
        -773,
        2399
      ],
      [
        -1338,
        10940,
        -1811,
        447,
        -21,
        -1241,
        1683,
        3213,
        -2050,
        -5383,
        2281,
        4596,
        -3759,
        2387,
        -5598
      ],
      [
        -3364,
        8532,
        -520,
        -3187,
        3173,
        -6934,
        5276,
        7822,
        2044,
        -2721,
        -2545,
        2505,
        3850,
        -889,
        -472
      ],
      [
        -3711,
        869,
        1699,
        249,
        2694,
        -16729,
        2333,
        139,
        2701,
        -3427,
        2496,
        1377,
        -2100,
        1307,
        -3180
      ],
      [
        -1896,
        504,
        2579,
        1780,
        2774,
        3784,
        -20052,
        -100,
        -7845,
        -953,
        -640,
        -3333,
        9841,
        -140,
        -1785
      ],
      [
        593,
        -3380,
        1967,
        1444,
        -6242,
        -7326,
        -108,
        -1696,
        -4979,
        4923,
        5527,
        -1528,
        779,
        4368,
        -4078
      ],
      [
        5493,
        3947,
        2871,
        -7153,
        -7874,
        -3402,
        4093,
        4537,
        4741,
        -13568,
        7356,
        -12705,
        3267,
        335,
        -2596
      ],
      [
        -8261,
        428,
        -3001,
        -7347,
        -2583,
        14662,
        2105,
        6384,
        -806,
        -84,
        5594,
        -2421,
        2471,
        -3319,
        -1623
      ],
      [
        -7771,
        -2660,
        1142,
        2039,
        4124,
        826,
        312,
        -4776,
        2406,
        -5473,
        -773,
        1966,
        2104,
        -1124,
        5051
      ],
      [
        -4824,
        -4320,
        551,
        -198,
        374,
        -8307,
        3094,
        5788,
        392,
        2824,
        2934,
        1022,
        -1973,
        -3650,
        687
      ],
      [
        -689,
        -1658,
        -3440,
        -4797,
        -4910,
        -1053,
        699,
        8745,
        -182,
        4971,
        6494,
        -3994,
        5073,
        1946,
        2599
      ],
      [
        -994,
        -4749,
        -3205,
        3160,
        -546,
        -2422,
        3563,
        -273,
        -4612,
        -7960,
        -8045,
        3005,
        7089,
        -951,
        4417
      ],
      [
        -3401,
        -3931,
        -6536,
        2107,
        5943,
        2907,
        -2892,
        603,
        479,
        2576,
        -3146,
        1975,
        3512,
        -9705,
        7060
      ],
      [
        1191,
        -3871,
        -65,
        -1855,
        3839,
        9779,
        5364,
        5977,
        -3832,
        -10641,
        -2254,
        -1345,
        2482,
        1040,
        1880
      ],
      [
        -3028,
        -9309,
        1070,
        4446,
        3667,
        5069,
        1593,
        1157,
        -5565,
        -9465,
        2140,
        -3984,
        -2726,
        2310,
        -11381
      ],
      [
        3484,
        -307,
        -462,
        -55,
        91,
        3393,
        -211,
        -3244,
        401,
        -3031,
        -11337,
        4890,
        -277,
        -381,
        -1368
      ],
      [
        -262,
        309,
        -2899,
        -874,
        -1764,
        -1815,
        1188,
        2075,
        -2426,
        1053,
        -335,
        -3729,
        -947,
        2968,
        -2241
      ],
      [
        3556,
        3387,
        -1027,
        -3451,
        1636,
        -12869,
        -2471,
        2316,
        -5180,
        -385,
        6332,
        -5209,
        6453,
        3368,
        5848
      ],
      [
        -2766,
        9433,
        -2994,
        3267,
        -382,
        -12755,
        -7594,
        -973,
        147,
        1110,
        7338,
        -2154,
        -3658,
        -2132,
        1064
      ],
      [
        -2277,
        -4196,
        4836,
        -7787,
        -5845,
        16095,
        -3185,
        -4084,
        1212,
        -2424,
        -1366,
        -6350,
        -5141,
        -10693,
        -3129
      ],
      [
        -1420,
        -3567,
        -1114,
        4865,
        5000,
        -5735,
        -12474,
        -1155,
        -7276,
        -1833,
        -5472,
        -3251,
        -2893,
        -1166,
        -1019
      ],
      [
        -2493,
        -7254,
        2970,
        -144,
        -379,
        498,
        6302,
        -53,
        1023,
        -7750,
        -5792,
        2095,
        -1424,
        -2826,
        2616
      ],
      [
        1648,
        3545,
        2733,
        -2858,
        -5635,
        -15429,
        -185,
        7973,
        -852,
        -8823,
        2546,
        3958,
        6501,
        -1470,
        -4080
      ],
      [
        -3914,
        -6558,
        -5523,
        957,
        -2087,
        1941,
        729,
        6812,
        4988,
        -1004,
        -584,
        3218,
        -411,
        -1897,
        -5295
      ],
      [
        -4447,
        4389,
        1203,
        -6902,
        -5737,
        7120,
        4548,
        -158,
        -2438,
        -1315,
        -159,
        -3061,
        -5026,
        -4216,
        -4356
      ],
      [
        -2024,
        -3434,
        -1205,
        4578,
        5304,
        -5466,
        -7492,
        -8367,
        -2873,
        -11690,
        -11311,
        11902,
        -11713,
        -14895,
        -365
      ],
      [
        -2003,
        -11481,
        1068,
        2306,
        1092,
        6762,
        4069,
        -2955,
        2198,
        -7374,
        -23983,
        -6696,
        -9469,
        -4966,
        -3403
      ],
      [
        -1690,
        -1751,
        -201,
        -451,
        -3426,
        3585,
        901,
        552,
        -1477,
        7384,
        3445,
        -4573,
        -2762,
        -5201,
        5922
      ],
      [
        2962,
        -8604,
        -3390,
        1184,
        2874,
        1041,
        -144,
        6696,
        2206,
        -1057,
        1176,
        -5299,
        3947,
        -3229,
        -1465
      ],
      [
        -3239,
        6047,
        -863,
        -2865,
        -2237,
        -7327,
        3885,
        4750,
        125,
        2841,
        -2412,
        -232,
        -3012,
        -2053,
        1692
      ],
      [
        -1872,
        -423,
        1703,
        -4437,
        -6600,
        -1304,
        9444,
        -4009,
        -2718,
        2228,
        -191,
        -2103,
        10296,
        -5302,
        4921
      ],
      [
        -6327,
        4517,
        898,
        -2201,
        -1295,
        10607,
        -4111,
        -4856,
        -4091,
        -2543,
        1036,
        -5909,
        -3471,
        -5267,
        -2502
      ],
      [
        -1565,
        -9217,
        907,
        4836,
        -1194,
        10314,
        3936,
        -5527,
        -1501,
        -6139,
        -9686,
        3843,
        183,
        5549,
        518
      ],
      [
        2965,
        3931,
        1428,
        -2435,
        817,
        -13323,
        -166,
        4442,
        1138,
        -4515,
        2392,
        479,
        6107,
        -5331,
        -4849
      ],
      [
        -5597,
        6143,
        2115,
        132,
        -2345,
        -5730,
        562,
        1552,
        214,
        129,
        1601,
        4247,
        -1780,
        162,
        -1722
      ],
      [
        1589,
        9091,
        2523,
        -2852,
        -5410,
        -12140,
        -2686,
        5598,
        -4599,
        -7951,
        4438,
        -6167,
        2532,
        5421,
        -3043
      ],
      [
        -4244,
        -3371,
        -1256,
        -2455,
        -4954,
        -2078,
        -5168,
        4118,
        1285,
        3648,
        2956,
        -731,
        162,
        -6270,
        746
      ],
      [
        -277,
        2362,
        2010,
        3975,
        1529,
        8933,
        4982,
        -3401,
        -1506,
        -2912,
        -1196,
        -2109,
        -9685,
        -4708,
        -10604
      ],
      [
        7725,
        14365,
        1098,
        -7428,
        4325,
        -14162,
        -501,
        -572,
        -3872,
        -4741,
        -766,
        1882,
        -3100,
        -2667,
        -4295
      ],
      [
        2139,
        14575,
        932,
        -7117,
        -5998,
        -603,
        2140,
        7725,
        1917,
        -12812,
        3376,
        -6106,
        4774,
        -1120,
        -41
      ],
      [
        -101,
        -3638,
        -2016,
        1086,
        1032,
        6501,
        -1065,
        -2584,
        849,
        -2623,
        -4031,
        -223,
        -2000,
        1858,
        -10124
      ],
      [
        -3964,
        -4494,
        1082,
        -4518,
        -2982,
        8229,
        333,
        3363,
        3780,
        159,
        3945,
        -4340,
        -5516,
        -4996,
        -4878
      ],
      [
        -1597,
        -3207,
        -3496,
        1389,
        -1893,
        -2005,
        599,
        -1387,
        273,
        -4959,
        -258,
        -1947,
        -36,
        -149,
        1097
      ],
      [
        199,
        1239,
        3197,
        -6308,
        2141,
        -4280,
        4067,
        5808,
        -265,
        -6059,
        1479,
        783,
        140,
        -2758,
        1292
      ],
      [
        -189,
        -5915,
        -1754,
        1485,
        6922,
        -9431,
        -17542,
        -2488,
        -6441,
        -2915,
        -6159,
        -3186,
        -1259,
        -5058,
        6316
      ],
      [
        -3647,
        -185,
        -4435,
        -4839,
        2010,
        4468,
        -1275,
        5805,
        -4156,
        6278,
        -16,
        -74,
        4451,
        64,
        -1140
      ],
      [
        -2549,
        -3990,
        -162,
        -8817,
        -4398,
        4813,
        -10938,
        -621,
        -1453,
        -3108,
        -563,
        -1359,
        -7515,
        -1300,
        -64
      ],
      [
        -41,
        -4331,
        -1184,
        3553,
        -197,
        -9319,
        6190,
        9597,
        4556,
        -2235,
        3796,
        -1220,
        -720,
        -1236,
        -3540
      ],
      [
        -139,
        2620,
        1710,
        -5094,
        679,
        2912,
        -3772,
        -4022,
        -1671,
        1234,
        3768,
        309,
        -6891,
        -3593,
        -4235
      ],
      [
        3135,
        14176,
        1051,
        -11389,
        -1367,
        -1963,
        1727,
        2257,
        -3396,
        -15999,
        -6796,
        -12006,
        -2154,
        1891,
        -1200
      ],
      [
        -2021,
        496,
        -153,
        454,
        -2072,
        -2817,
        26,
        535,
        2386,
        1145,
        -3347,
        158,
        169,
        -2269,
        1297
      ]
    ],
    "scale": 7.588631917527573e-05,
    "zero_point": 0,
    "shape": [
      64,
      15
    ],
    "type": "weight",
    "symmetric": true
  },
  "conv2.lin_l.weight": {
    "data": [
      [
        880,
        -3896,
        -2352,
        1547,
        4220,
        2261,
        -920,
        -919,
        -5770,
        2430,
        -1027,
        -1709,
        2199,
        2649,
        -1275,
        527,
        2591,
        6378,
        -2272,
        -2075,
        -540,
        -4557,
        1263,
        -2670,
        -1325,
        3215,
        3661,
        5754,
        -435,
        368,
        -3014,
        -5035,
        -186,
        -3155,
        -8937,
        554,
        -62,
        590,
        -3946,
        -14521,
        3699,
        -541,
        1095,
        4034,
        -2664,
        687,
        3558,
        292,
        -1343,
        -1936,
        -2406,
        -729,
        -336,
        -193,
        1430,
        -981,
        2753,
        -5720,
        1453,
        -1802,
        1729,
        -1013,
        -7047,
        -426
      ],
      [
        -282,
        4415,
        -428,
        1116,
        -5844,
        2213,
        4487,
        -536,
        1163,
        1004,
        -928,
        -1823,
        -3084,
        -2910,
        -195,
        -2907,
        -1218,
        -880,
        -3578,
        -18548,
        -331,
        -403,
        733,
        -843,
        2010,
        -2013,
        1373,
        -3308,
        2473,
        -445,
        -6118,
        -1380,
        1056,
        4119,
        1475,
        -8736,
        -614,
        5351,
        7687,
        4339,
        -1249,
        -4596,
        -406,
        -2623,
        3644,
        1230,
        -1847,
        -2303,
        -3757,
        1128,
        1961,
        -261,
        2044,
        -42,
        558,
        -54,
        -4370,
        -373,
        -1779,
        991,
        -4196,
        1263,
        4806,
        -810
      ],
      [
        1315,
        -2046,
        -3579,
        2149,
        2937,
        4092,
        -491,
        -1449,
        -2463,
        4854,
        471,
        786,
        2624,
        -504,
        -2596,
        1700,
        814,
        4144,
        -131,
        -7103,
        -2927,
        -5147,
        1205,
        1091,
        -2620,
        -766,
        6822,
        5365,
        -69,
        -357,
        -1002,
        -438,
        1036,
        -6098,
        -8106,
        491,
        822,
        -2450,
        -5467,
        -11696,
        1551,
        -276,
        -551,
        2242,
        -484,
        -3949,
        2718,
        6,
        253,
        339,
        -3287,
        -222,
        614,
        -2691,
        2831,
        1008,
        3706,
        -9580,
        2907,
        -3706,
        646,
        -3378,
        -2429,
        -206
      ],
      [
        -655,
        -695,
        -721,
        -338,
        -2062,
        -142,
        -7677,
        -3609,
        -4413,
        443,
        -1200,
        2204,
        -1804,
        -2273,
        56,
        -394,
        -1968,
        1832,
        1377,
        4532,
        -635,
        1242,
        -1912,
        -2555,
        721,
        968,
        -1453,
        213,
        -1224,
        1356,
        1014,
        -2276,
        930,
        3395,
        -2139,
        1288,
        -719,
        -7435,
        3295,
        -2374,
        -214,
        -1242,
        -3530,
        -1248,
        -1471,
        -3438,
        7056,
        1539,
        1886,
        -67,
        2190,
        2455,
        -1331,
        506,
        5819,
        923,
        -4723,
        1275,
        -6889,
        -324,
        -1090,
        -3554,
        -683,
        182
      ],
      [
        -2994,
        965,
        -679,
        792,
        -1197,
        1976,
        5060,
        -1183,
        2972,
        1066,
        5758,
        -555,
        -3219,
        -6610,
        450,
        -481,
        716,
        2234,
        -1491,
        -18697,
        -1811,
        -45,
        231,
        300,
        3067,
        -3260,
        608,
        -2296,
        3554,
        -316,
        1613,
        -6,
        435,
        2680,
        2559,
        -6167,
        880,
        3182,
        7040,
        1797,
        1041,
        -1148,
        -1404,
        -5785,
        3061,
        1532,
        1165,
        -1386,
        -1214,
        1733,
        2522,
        2683,
        2281,
        -90,
        1516,
        -1505,
        1229,
        38,
        -3386,
        1232,
        -3320,
        -1467,
        6323,
        -1286
      ],
      [
        213,
        3494,
        322,
        741,
        -3156,
        1206,
        2682,
        610,
        688,
        -2614,
        650,
        -2718,
        -5678,
        -1826,
        -1429,
        -3133,
        1837,
        3322,
        -11190,
        -14427,
        463,
        -1719,
        -503,
        -4043,
        1498,
        -3282,
        499,
        -1667,
        1108,
        -119,
        -3112,
        -590,
        1239,
        5883,
        3044,
        -3410,
        -186,
        8886,
        3451,
        3085,
        3108,
        -2778,
        -312,
        -2385,
        2398,
        2155,
        363,
        242,
        -2106,
        1949,
        1643,
        -1139,
        -803,
        937,
        2297,
        276,
        -187,
        2795,
        -1480,
        1154,
        -3924,
        1188,
        4361,
        49
      ],
      [
        -971,
        -1744,
        574,
        74,
        -236,
        -938,
        -504,
        -909,
        -1439,
        -330,
        -1117,
        126,
        104,
        -295,
        -1408,
        -1801,
        -511,
        -1540,
        -587,
        -1965,
        -1747,
        -1303,
        476,
        -1584,
        -613,
        188,
        292,
        -1967,
        -350,
        1241,
        477,
        -57,
        -1563,
        -163,
        10,
        -1123,
        -1336,
        -369,
        -501,
        -530,
        -435,
        -273,
        -380,
        -1724,
        257,
        21,
        -764,
        -1824,
        -381,
        -1006,
        -25,
        -1221,
        -246,
        -653,
        -1863,
        163,
        -1078,
        -260,
        -1652,
        344,
        -66,
        -71,
        -1853,
        -916
      ],
      [
        747,
        -2955,
        -1141,
        -4069,
        221,
        3944,
        -9603,
        -3805,
        -1195,
        -2430,
        4302,
        5511,
        2485,
        -15127,
        196,
        1690,
        -7766,
        -4216,
        1514,
        -8195,
        -20810,
        386,
        -150,
        2111,
        -535,
        -1569,
        10634,
        9257,
        -880,
        -691,
        -4602,
        -9813,
        -19831,
        142,
        272,
        -13013,
        -1027,
        3886,
        4088,
        2550,
        -3158,
        1104,
        225,
        -882,
        1104,
        -2866,
        -6751,
        -3569,
        -7216,
        -1327,
        -888,
        3397,
        -4061,
        -1028,
        -7170,
        -1327,
        -8098,
        4363,
        1674,
        -7630,
        -13389,
        -1664,
        1660,
        -864
      ],
      [
        699,
        -1357,
        -935,
        -1278,
        3608,
        996,
        -7214,
        1208,
        -5106,
        3230,
        -3124,
        -321,
        1707,
        -610,
        -667,
        2641,
        328,
        3873,
        -683,
        4010,
        317,
        -2319,
        1251,
        1609,
        -939,
        4410,
        5701,
        3631,
        -624,
        434,
        1067,
        1803,
        1412,
        -5728,
        -3413,
        972,
        -873,
        -1552,
        -6451,
        -10552,
        2803,
        1278,
        2254,
        3298,
        -2811,
        -3109,
        -757,
        1477,
        -8,
        -1958,
        -2465,
        1480,
        -2485,
        380,
        671,
        72,
        2438,
        -7720,
        3261,
        -277,
        473,
        -1337,
        -6190,
        1099
      ],
      [
        88,
        -1586,
        121,
        -1224,
        -2105,
        -1492,
        -1083,
        -737,
        -1644,
        -973,
        -2039,
        -1904,
        -1665,
        -1825,
        -1151,
        -1442,
        -1884,
        -1129,
        -1546,
        121,
        493,
        624,
        508,
        -1939,
        4,
        -469,
        650,
        -292,
        -727,
        1096,
        -1701,
        -1469,
        -360,
        -817,
        -790,
        134,
        -88,
        -681,
        -285,
        -1786,
        82,
        -554,
        516,
        -1599,
        -724,
        221,
        -592,
        -972,
        -1124,
        -2053,
        526,
        -1051,
        536,
        -949,
        -1988,
        -1980,
        -1440,
        -1604,
        -1265,
        -1618,
        592,
        -77,
        -1444,
        -65
      ],
      [
        -1600,
        4833,
        588,
        446,
        -2979,
        402,
        5072,
        186,
        3650,
        1152,
        -3396,
        -2567,
        -3992,
        -3355,
        292,
        -4011,
        -4844,
        -1874,
        -8910,
        -24623,
        137,
        641,
        -775,
        -8974,
        2076,
        -2017,
        3692,
        -3114,
        3761,
        -371,
        -9554,
        -2064,
        281,
        8512,
        -578,
        -10646,
        748,
        2959,
        11332,
        2487,
        -5476,
        -6826,
        -1666,
        -4584,
        4085,
        2179,
        -769,
        -711,
        -571,
        2161,
        4763,
        -3361,
        171,
        806,
        -184,
        -75,
        -1204,
        3559,
        -2333,
        -421,
        -2483,
        2172,
        5848,
        -70
      ],
      [
        204,
        -4684,
        93,
        10719,
        -4070,
        -3249,
        -2340,
        -12746,
        1743,
        1585,
        -6117,
        2249,
        2359,
        -3606,
        -71,
        1502,
        5061,
        4569,
        -3462,
        12108,
        -8011,
        2860,
        -593,
        -7151,
        155,
        -2034,
        4988,
        1746,
        43,
        -835,
        -2291,
        -10540,
        -511,
        -14367,
        -3233,
        8408,
        -6062,
        1632,
        -2173,
        -2579,
        -498,
        -2049,
        -1218,
        2539,
        -2126,
        -4054,
        9642,
        1952,
        -1582,
        -3159,
        -2907,
        4679,
        -4643,
        -4069,
        605,
        1512,
        12298,
        -13301,
        -3254,
        -1508,
        -2249,
        -5309,
        -454,
        905
      ],
      [
        552,
        413,
        160,
        352,
        -812,
        -1234,
        1704,
        -1862,
        -1702,
        573,
        -1962,
        -949,
        466,
        -438,
        -463,
        404,
        497,
        -1648,
        -1673,
        -214,
        -1508,
        396,
        -691,
        371,
        166,
        287,
        -871,
        -940,
        -1189,
        747,
        503,
        -1057,
        -282,
        -208,
        -765,
        664,
        -1947,
        -1423,
        -1639,
        -1960,
        -670,
        -310,
        -795,
        -1209,
        -1931,
        -878,
        -1396,
        182,
        -1257,
        319,
        -274,
        -805,
        -1778,
        -744,
        -1287,
        -1996,
        21,
        -630,
        -442,
        178,
        -1248,
        170,
        454,
        236
      ],
      [
        2329,
        1381,
        -559,
        625,
        -2758,
        4223,
        2979,
        310,
        2808,
        2370,
        4633,
        -2521,
        -2303,
        -3595,
        618,
        -2853,
        1417,
        -1633,
        -9404,
        -16010,
        296,
        1796,
        -1232,
        -5016,
        689,
        -3855,
        853,
        -4920,
        2241,
        66,
        -2271,
        738,
        -300,
        4817,
        65,
        -4213,
        554,
        4881,
        7909,
        6737,
        -3242,
        -3424,
        -1534,
        -3111,
        2226,
        2777,
        376,
        -110,
        -2324,
        1078,
        2320,
        -2769,
        2086,
        -373,
        1098,
        -271,
        1720,
        805,
        -2527,
        -820,
        -2918,
        1555,
        3686,
        -1223
      ],
      [
        1272,
        -4905,
        -8642,
        2537,
        5228,
        5917,
        -1128,
        1290,
        -15669,
        688,
        2999,
        -925,
        3280,
        -1664,
        -3794,
        -403,
        2540,
        13459,
        -43,
        -22826,
        -1781,
        -7971,
        778,
        -1448,
        -5130,
        -1179,
        3212,
        -326,
        -118,
        573,
        -93,
        3650,
        2855,
        -4689,
        -14278,
        -328,
        1346,
        2376,
        -8361,
        -17838,
        703,
        -2146,
        -1331,
        2128,
        -2164,
        -2032,
        1654,
        -432,
        433,
        -68,
        -636,
        1347,
        -3900,
        -2239,
        2793,
        -734,
        1782,
        -5930,
        1498,
        -4289,
        -2418,
        -365,
        -6064,
        -1971
      ],
      [
        -1127,
        -893,
        -732,
        -1152,
        -489,
        34,
        785,
        -526,
        1138,
        -1455,
        -919,
        -507,
        -514,
        780,
        -714,
        -503,
        -120,
        -648,
        -1827,
        767,
        -481,
        -1123,
        368,
        -1746,
        971,
        -941,
        -2003,
        338,
        469,
        -131,
        506,
        2938,
        -956,
        -1237,
        709,
        -565,
        41,
        -1388,
        457,
        1460,
        -2033,
        -1049,
        -768,
        -1447,
        -1537,
        -689,
        -138,
        -1909,
        -1534,
        -154,
        -108,
        289,
        -1938,
        -1489,
        -443,
        -185,
        -1580,
        -1483,
        -832,
        -1890,
        -2895,
        -761,
        -743,
        -1474
      ],
      [
        -160,
        -2826,
        -9809,
        3152,
        3036,
        3834,
        -2635,
        1779,
        -11859,
        -1229,
        1008,
        1087,
        2694,
        -3312,
        -1607,
        1480,
        2737,
        10722,
        624,
        -18209,
        -2588,
        -8678,
        -323,
        -59,
        -2637,
        -4874,
        2116,
        1685,
        -939,
        -473,
        -1169,
        -262,
        1634,
        -7331,
        -13450,
        -2138,
        1790,
        -4113,
        -3319,
        -13563,
        2303,
        2,
        -1243,
        2130,
        -1232,
        -4114,
        1247,
        171,
        -1758,
        -1579,
        -4893,
        2914,
        -757,
        -6023,
        976,
        93,
        2531,
        -5451,
        1698,
        -6514,
        -2352,
        -3124,
        -3949,
        -465
      ],
      [
        -1327,
        2069,
        887,
        7677,
        -1203,
        5023,
        5336,
        346,
        -561,
        -2982,
        -4376,
        -7911,
        -8155,
        -4561,
        963,
        -3532,
        -3925,
        1775,
        -5341,
        -26694,
        1120,
        238,
        3693,
        625,
        4690,
        -1302,
        -2200,
        -5771,
        1145,
        73,
        -755,
        1068,
        2562,
        2526,
        880,
        -6273,
        1165,
        7480,
        9069,
        1585,
        2659,
        -6111,
        -3861,
        -5344,
        1201,
        4779,
        7074,
        664,
        -7125,
        6994,
        5339,
        -9170,
        898,
        486,
        2859,
        -62,
        3921,
        345,
        -688,
        3514,
        -6543,
        1100,
        2856,
        -2019
      ],
      [
        6868,
        -2875,
        459,
        -5425,
        -6402,
        -2206,
        -2016,
        201,
        1268,
        2091,
        -7571,
        -3651,
        1335,
        8081,
        -3941,
        -4659,
        -2292,
        3500,
        -3110,
        10122,
        719,
        -3379,
        -833,
        -9332,
        3363,
        -687,
        1660,
        3156,
        236,
        -1546,
        -2337,
        -11263,
        -2005,
        -1394,
        -1194,
        -339,
        -5184,
        9146,
        -3465,
        164,
        7595,
        -5338,
        -2288,
        -326,
        -200,
        5944,
        5249,
        -6227,
        -4521,
        -3824,
        -1345,
        -3588,
        2706,
        -1870,
        1259,
        -494,
        819,
        -10015,
        2245,
        -2999,
        -580,
        -743,
        3121,
        -466
      ],
      [
        -2859,
        6163,
        2009,
        952,
        -2430,
        946,
        1481,
        1437,
        4191,
        -102,
        2808,
        -5069,
        -4202,
        -3923,
        385,
        -4464,
        -1496,
        1171,
        -15002,
        -26671,
        575,
        -1636,
        -1888,
        -13376,
        107,
        -5688,
        5121,
        -3231,
        3846,
        357,
        -5933,
        -4133,
        -85,
        8682,
        1597,
        -7923,
        839,
        3292,
        8403,
        1688,
        -8652,
        -7833,
        -4764,
        -8346,
        4837,
        4346,
        3457,
        -1541,
        -3243,
        2139,
        2689,
        -5507,
        3466,
        1476,
        248,
        -504,
        4507,
        6932,
        -558,
        -1600,
        -3531,
        953,
        4942,
        452
      ],
      [
        2415,
        -1180,
        -789,
        254,
        1860,
        2367,
        -5989,
        356,
        -6202,
        6593,
        -2070,
        1423,
        2115,
        1254,
        -197,
        1397,
        617,
        3501,
        -142,
        7060,
        1235,
        -2875,
        431,
        445,
        211,
        3830,
        5779,
        6145,
        -2038,
        1690,
        203,
        1845,
        806,
        -5311,
        -6634,
        1056,
        -112,
        -1241,
        -3468,
        -10179,
        1657,
        1121,
        2308,
        1135,
        -2859,
        408,
        256,
        173,
        -386,
        212,
        -3612,
        567,
        -891,
        667,
        1704,
        1209,
        4303,
        -7380,
        3880,
        -1941,
        660,
        -717,
        -2528,
        932
      ],
      [
        658,
        -3501,
        -1071,
        1020,
        1075,
        4890,
        -1825,
        -631,
        -2046,
        3219,
        2577,
        -723,
        790,
        595,
        -2276,
        471,
        2070,
        8338,
        -55,
        -10831,
        -999,
        -2013,
        742,
        637,
        -1846,
        -420,
        3973,
        3004,
        714,
        1232,
        -357,
        310,
        747,
        -5102,
        -2562,
        -1564,
        1692,
        -3334,
        -4958,
        -9141,
        1501,
        -92,
        -849,
        1812,
        -576,
        -2184,
        1763,
        219,
        -1678,
        214,
        -4041,
        -1106,
        -114,
        -3778,
        2618,
        -190,
        2398,
        -7382,
        -653,
        -5999,
        -1218,
        -1175,
        -3086,
        2337
      ],
      [
        -6244,
        -3430,
        -1418,
        -3580,
        2763,
        -5595,
        -15373,
        -3616,
        2885,
        -5923,
        -7700,
        -462,
        505,
        -9338,
        1958,
        -1023,
        -3144,
        -1900,
        1522,
        4691,
        -22168,
        -355,
        1967,
        1129,
        318,
        -333,
        -1601,
        -4362,
        -3261,
        -777,
        828,
        1733,
        -23414,
        3336,
        -1718,
        6115,
        -1843,
        1722,
        -2206,
        -4882,
        -919,
        2423,
        1373,
        -2509,
        -9038,
        -458,
        3554,
        631,
        -14879,
        -1880,
        -1992,
        -6942,
        -1942,
        -195,
        -16543,
        -1112,
        -907,
        4990,
        529,
        -11118,
        -11,
        -8145,
        -2636,
        -961
      ],
      [
        1558,
        -1314,
        -359,
        2593,
        -2076,
        3426,
        1380,
        1785,
        -135,
        533,
        269,
        -2357,
        -3578,
        -4422,
        -803,
        -947,
        2688,
        -983,
        -480,
        -18961,
        -276,
        1435,
        1501,
        913,
        1052,
        -1974,
        -5251,
        -4617,
        -890,
        -281,
        3348,
        1671,
        2466,
        99,
        -909,
        -3318,
        1082,
        6390,
        8383,
        6160,
        1515,
        -1272,
        1460,
        -2193,
        2279,
        3062,
        -929,
        1931,
        -1333,
        2560,
        4041,
        -5019,
        -2896,
        -889,
        1467,
        -1548,
        -730,
        308,
        -2227,
        3526,
        -159,
        -561,
        4449,
        -2030
      ],
      [
        2484,
        -164,
        -48,
        2417,
        -1072,
        3088,
        -3095,
        1182,
        -3973,
        5691,
        -430,
        -144,
        665,
        2257,
        204,
        1631,
        3005,
        6909,
        -1101,
        5506,
        -856,
        -4138,
        -459,
        695,
        396,
        3388,
        7244,
        6573,
        -1687,
        -456,
        1105,
        940,
        -886,
        -8449,
        -4631,
        126,
        1441,
        1811,
        -2846,
        -11124,
        1565,
        -441,
        1267,
        732,
        190,
        1791,
        401,
        -283,
        1282,
        277,
        -3566,
        598,
        -2512,
        48,
        1429,
        736,
        4566,
        -10475,
        3761,
        -3102,
        273,
        -295,
        -746,
        -215
      ],
      [
        -3643,
        6039,
        1401,
        2947,
        -1958,
        244,
        -89,
        698,
        1844,
        2789,
        -3081,
        -3203,
        -5979,
        -1405,
        -337,
        -2349,
        -3054,
        2614,
        -10882,
        -20671,
        1179,
        -1053,
        -241,
        -4922,
        1399,
        -1882,
        -4977,
        -3509,
        3217,
        -1491,
        -3349,
        -980,
        2185,
        3823,
        2290,
        -2663,
        1055,
        5544,
        7053,
        2822,
        -1695,
        -5190,
        -2563,
        -2917,
        2284,
        3768,
        1403,
        1365,
        201,
        3160,
        3832,
        -2997,
        1917,
        340,
        3317,
        -1493,
        1923,
        689,
        -418,
        2937,
        -2061,
        1976,
        5770,
        298
      ],
      [
        1039,
        278,
        -2123,
        3693,
        2112,
        5036,
        1067,
        233,
        -7779,
        4171,
        1353,
        467,
        993,
        -1216,
        -2058,
        465,
        2954,
        7824,
        182,
        -10480,
        -603,
        -4754,
        809,
        2291,
        -2430,
        -151,
        5093,
        4223,
        -887,
        -866,
        -1520,
        -5974,
        757,
        -8848,
        -6696,
        -1253,
        2354,
        -1590,
        -7870,
        -15287,
        2609,
        -204,
        -518,
        1961,
        -568,
        -715,
        2870,
        -1775,
        895,
        -183,
        -2985,
        -663,
        -2829,
        -2572,
        233,
        -464,
        2543,
        -10946,
        1951,
        -4825,
        164,
        223,
        -2950,
        -1414
      ],
      [
        -1237,
        1384,
        990,
        296,
        -3618,
        2964,
        2870,
        913,
        2432,
        1949,
        5280,
        -1305,
        -3063,
        -5932,
        418,
        -830,
        587,
        -4389,
        -9557,
        -18542,
        824,
        2124,
        -331,
        -8085,
        -391,
        -3768,
        -1188,
        -3522,
        1641,
        -893,
        -3622,
        -1115,
        -622,
        4161,
        -24,
        -6363,
        -398,
        2627,
        9376,
        7998,
        -8389,
        -4950,
        -1888,
        -4797,
        3963,
        2234,
        99,
        -257,
        -908,
        521,
        1563,
        -2658,
        2092,
        277,
        221,
        -677,
        -1713,
        3060,
        -1553,
        -1680,
        -3723,
        543,
        5167,
        -1608
      ],
      [
        -1449,
        -1944,
        -1664,
        2077,
        894,
        362,
        -3563,
        -4208,
        -3822,
        601,
        2002,
        -2243,
        1636,
        382,
        -896,
        193,
        -1760,
        3348,
        -4111,
        -6911,
        318,
        -4454,
        1896,
        1081,
        -162,
        -1616,
        2735,
        4179,
        923,
        359,
        -1128,
        1749,
        2347,
        -1560,
        -8642,
        -1762,
        1690,
        1381,
        -2489,
        -7133,
        2258,
        5,
        -836,
        318,
        -2467,
        -3651,
        3182,
        -428,
        -1288,
        1739,
        -3799,
        -3976,
        157,
        -1920,
        2691,
        -374,
        3725,
        -3920,
        -901,
        1490,
        932,
        -1404,
        -2772,
        1207
      ],
      [
        -6112,
        -7035,
        732,
        -10450,
        -18081,
        -9417,
        -6446,
        -1668,
        -6142,
        2863,
        -8530,
        -6827,
        6822,
        -298,
        -9425,
        -13798,
        -10330,
        -181,
        -4217,
        -14631,
        485,
        201,
        165,
        -3728,
        10212,
        8998,
        -1358,
        9594,
        -7324,
        777,
        4603,
        -6957,
        1473,
        17360,
        -6476,
        -8558,
        -9389,
        -3796,
        -25581,
        -3360,
        1409,
        366,
        -3591,
        5128,
        -12608,
        -8787,
        -4379,
        4913,
        8830,
        -6591,
        -2513,
        -6237,
        -12536,
        389,
        2681,
        -1548,
        -13743,
        1458,
        2945,
        3346,
        -6758,
        162,
        4284,
        -1901
      ],
      [
        -2272,
        2131,
        714,
        -475,
        -1930,
        214,
        3036,
        1266,
        4465,
        -696,
        6082,
        -3100,
        -299,
        -5493,
        1437,
        -1934,
        1514,
        1311,
        -10919,
        -16250,
        -955,
        -129,
        -1894,
        -6233,
        -129,
        -6245,
        2730,
        -1091,
        1922,
        -137,
        -5935,
        -2597,
        -2248,
        5594,
        2935,
        -6581,
        1850,
        3371,
        7261,
        2117,
        -3590,
        -2328,
        -3266,
        -6051,
        3899,
        -592,
        2398,
        -1116,
        103,
        464,
        1327,
        -2683,
        3888,
        89,
        -1507,
        -1205,
        1709,
        5237,
        -1302,
        -2963,
        -5765,
        986,
        5116,
        -837
      ],
      [
        2961,
        -3936,
        -501,
        -5624,
        306,
        1865,
        -6717,
        129,
        -8770,
        -4409,
        1489,
        -3943,
        3374,
        3124,
        664,
        -291,
        1564,
        712,
        471,
        3218,
        3505,
        -10429,
        288,
        -258,
        -12072,
        2162,
        4749,
        8475,
        -8607,
        539,
        1177,
        1262,
        -3740,
        2925,
        8375,
        -6784,
        -463,
        -14733,
        3554,
        -18353,
        -1730,
        70,
        219,
        255,
        -6861,
        1145,
        -32767,
        -2769,
        -3073,
        1181,
        -4392,
        -6059,
        -8004,
        -207,
        -194,
        -348,
        -6631,
        498,
        3198,
        -18042,
        -575,
        2038,
        -57,
        365
      ]
    ],
    "scale": 9.283121735167707e-05,
    "zero_point": 0,
    "shape": [
      32,
      64
    ],
    "type": "weight",
    "symmetric": true
  },
  "conv2.lin_l.bias": {
    "data": [
      -2547,
      9520,
      1952,
      -21903,
      7609,
      4366,
      -15784,
      18705,
      3499,
      -18131,
      11109,
      -29485,
      -15986,
      8237,
      7146,
      -21210,
      11533,
      -18970,
      -32767,
      3383,
      840,
      5934,
      6632,
      -14488,
      4928,
      -9418,
      3910,
      6355,
      11830,
      -17359,
      16197,
      5958
    ],
    "scale": 9.083169771295101e-06,
    "zero_point": 0,
    "shape": [
      32
    ],
    "type": "bias",
    "symmetric": true
  },
  "conv2.lin_r.weight": {
    "data": [
      [
        1125,
        -3162,
        -1001,
        2755,
        1180,
        -2790,
        4012,
        1977,
        -1460,
        2767,
        232,
        1309,
        892,
        -4727,
        3839,
        1890,
        1335,
        9253,
        1282,
        12326,
        2714,
        -5253,
        -388,
        -2689,
        1406,
        398,
        1666,
        1057,
        -2491,
        1124,
        -3145,
        -6845,
        -1510,
        -4085,
        -1483,
        2380,
        -56,
        667,
        -7421,
        -2482,
        3347,
        -1910,
        -311,
        1428,
        1172,
        1059,
        3159,
        99,
        7974,
        -3056,
        -1267,
        1459,
        12227,
        -196,
        -1131,
        -2284,
        2880,
        -4493,
        6250,
        34,
        2520,
        722,
        8817,
        -1004
      ],
      [
        541,
        2475,
        560,
        -1641,
        -4156,
        225,
        -10778,
        -10171,
        2189,
        -3347,
        -6333,
        -1443,
        2093,
        1462,
        2597,
        246,
        -2528,
        -151,
        -2012,
        -9608,
        -7437,
        277,
        -2405,
        1812,
        2612,
        -1232,
        2754,
        3615,
        1257,
        -1901,
        -9872,
        -3957,
        -4100,
        -793,
        -418,
        -3965,
        -346,
        -645,
        3257,
        2754,
        -10537,
        326,
        -1299,
        -1420,
        -1893,
        1287,
        1393,
        -2384,
        -9554,
        -1176,
        776,
        -244,
        -9719,
        753,
        -2292,
        -593,
        2305,
        -2431,
        -7364,
        -4801,
        653,
        -349,
        -5074,
        -271
      ],
      [
        2647,
        -2587,
        -1498,
        1904,
        4439,
        -2419,
        5806,
        500,
        -1885,
        829,
        -627,
        2087,
        -577,
        -3415,
        2361,
        2447,
        1309,
        7283,
        -96,
        16681,
        1822,
        -9336,
        91,
        158,
        -987,
        -1216,
        361,
        462,
        -1132,
        48,
        -388,
        806,
        -495,
        -6782,
        -2579,
        3273,
        -180,
        117,
        -6929,
        -5232,
        -356,
        1331,
        509,
        1302,
        -1689,
        -854,
        5150,
        -470,
        5807,
        -992,
        -1902,
        1632,
        14339,
        -2444,
        -740,
        -656,
        1101,
        -7197,
        3596,
        -267,
        1967,
        -795,
        5865,
        -419
      ],
      [
        -775,
        -1848,
        -1460,
        -1793,
        2002,
        -832,
        -4377,
        7257,
        -189,
        1080,
        -1076,
        621,
        -4870,
        -2695,
        11160,
        1122,
        -1981,
        -1591,
        3360,
        19883,
        10173,
        -7460,
        -2011,
        -1282,
        -1731,
        104,
        -1461,
        6096,
        -328,
        -347,
        -863,
        2779,
        169,
        -1221,
        -2175,
        2589,
        -4656,
        -6140,
        565,
        -2461,
        567,
        -2101,
        -956,
        888,
        -960,
        -4765,
        -475,
        -1438,
        188,
        -1033,
        -3269,
        -2824,
        12488,
        146,
        -106,
        679,
        325,
        -217,
        2389,
        931,
        -2778,
        2811,
        506,
        1759
      ],
      [
        -451,
        6312,
        716,
        159,
        -5565,
        192,
        -5354,
        -536,
        2589,
        62,
        -6337,
        -2077,
        910,
        566,
        719,
        -2697,
        -3921,
        -3499,
        834,
        -4437,
        -3115,
        518,
        -2326,
        -95,
        1739,
        953,
        1773,
        3488,
        6042,
        70,
        -7844,
        -3754,
        -4651,
        1424,
        2269,
        -5566,
        1573,
        -4236,
        3105,
        2740,
        -619,
        783,
        -1147,
        -1012,
        659,
        881,
        -992,
        -3417,
        -9010,
        -730,
        -867,
        719,
        -8054,
        1015,
        -3208,
        672,
        -169,
        19,
        -2025,
        -4851,
        -375,
        576,
        -3357,
        -421
      ],
      [
        616,
        1302,
        128,
        -1204,
        -1618,
        -932,
        -7489,
        -8718,
        1702,
        -8001,
        -5670,
        947,
        -719,
        -764,
        2611,
        573,
        -4536,
        -1085,
        -10881,
        -8103,
        -10630,
        1034,
        -1689,
        -6865,
        1347,
        821,
        1033,
        6076,
        1786,
        -415,
        -9018,
        -4827,
        -6402,
        -249,
        -2554,
        -4699,
        869,
        -4344,
        1135,
        3223,
        -8742,
        985,
        -4817,
        -369,
        -2433,
        -671,
        1541,
        -998,
        -4062,
        -546,
        -3322,
        1206,
        -8348,
        -6,
        -639,
        -391,
        2410,
        -1819,
        -10900,
        -4302,
        861,
        -124,
        -3108,
        79
      ],
      [
        -1141,
        316,
        -1674,
        -1886,
        -1141,
        -1324,
        -1210,
        -760,
        -1722,
        252,
        -42,
        -1665,
        -884,
        -1790,
        299,
        -1298,
        -1172,
        555,
        -1705,
        -1508,
        -814,
        -1781,
        -1849,
        -898,
        -403,
        872,
        535,
        -352,
        365,
        -697,
        -1091,
        153,
        28,
        760,
        182,
        -301,
        -1071,
        -710,
        2,
        573,
        826,
        -1859,
        -1022,
        -569,
        -1640,
        -124,
        -1521,
        -89,
        -364,
        -1518,
        -1922,
        -1215,
        -241,
        -53,
        457,
        410,
        -1149,
        1603,
        -1579,
        -205,
        -1351,
        -522,
        20,
        -849
      ],
      [
        -565,
        -1776,
        -332,
        4833,
        -4741,
        -1125,
        -9141,
        -5054,
        498,
        -1429,
        -7208,
        1569,
        -3043,
        83,
        536,
        -19491,
        -5157,
        -9317,
        -7625,
        -12514,
        396,
        317,
        -12531,
        -25360,
        -4559,
        -342,
        1022,
        3985,
        6240,
        -1628,
        -10072,
        -6875,
        162,
        -1278,
        -2749,
        -9928,
        690,
        4580,
        8621,
        2279,
        -471,
        156,
        -4146,
        301,
        -251,
        -1703,
        -3963,
        -17545,
        -6558,
        662,
        2589,
        2166,
        -10546,
        628,
        -493,
        -1378,
        -2761,
        -6343,
        -1709,
        -22,
        3255,
        -2355,
        607,
        -1548
      ],
      [
        1109,
        -5370,
        -511,
        -2168,
        2607,
        -4617,
        -1180,
        -2794,
        -3207,
        -660,
        -739,
        3016,
        1457,
        -5660,
        900,
        -8,
        2973,
        7856,
        269,
        10447,
        719,
        -2510,
        995,
        -153,
        -3056,
        -859,
        -2393,
        -2802,
        -2730,
        -365,
        -51,
        3603,
        341,
        -7016,
        -3826,
        -1086,
        -1188,
        -2523,
        -6436,
        -6720,
        -267,
        266,
        1413,
        324,
        272,
        -1872,
        3454,
        -559,
        4269,
        -3006,
        -1495,
        1578,
        12009,
        739,
        65,
        904,
        305,
        -6075,
        3752,
        -243,
        -421,
        -1610,
        3011,
        763
      ],
      [
        -740,
        -1866,
        416,
        -1860,
        -2034,
        -1309,
        -265,
        -1248,
        -194,
        273,
        -223,
        -44,
        -1632,
        -917,
        -54,
        -1309,
        -167,
        -68,
        -570,
        -738,
        -498,
        1172,
        -1112,
        314,
        187,
        -1166,
        -481,
        -1960,
        98,
        -772,
        -1443,
        -1820,
        99,
        -1244,
        -1867,
        -1248,
        -1686,
        -1896,
        -303,
        -1007,
        -547,
        -1599,
        271,
        -1296,
        -32,
        -247,
        -1586,
        -1140,
        -1627,
        206,
        -1606,
        -1423,
        -702,
        -1009,
        -771,
        298,
        384,
        -1181,
        -822,
        3,
        412,
        -504,
        -1490,
        -1873
      ],
      [
        1236,
        2757,
        -1040,
        -3483,
        -1281,
        -568,
        -15433,
        -14527,
        934,
        -5043,
        -8376,
        -241,
        3321,
        2588,
        2760,
        944,
        -1783,
        -347,
        -4654,
        -10907,
        -4881,
        526,
        -670,
        -11954,
        3736,
        -2672,
        4552,
        3559,
        2483,
        276,
        -13722,
        -4094,
        -1847,
        65,
        -720,
        -7355,
        -900,
        669,
        1298,
        2607,
        -13622,
        53,
        -406,
        -8,
        -1162,
        1352,
        2311,
        -2324,
        -13895,
        -2681,
        -1245,
        1989,
        -12586,
        427,
        -313,
        -1443,
        3105,
        -1785,
        -9133,
        -1055,
        750,
        1801,
        -6497,
        -793
      ],
      [
        -1026,
        4643,
        -4699,
        6977,
        -4164,
        -1953,
        9169,
        2417,
        1790,
        4150,
        1102,
        -925,
        4192,
        -4780,
        4691,
        2841,
        -1407,
        4080,
        -1610,
        30871,
        -3852,
        -2925,
        -509,
        6628,
        -2119,
        -5217,
        1244,
        4404,
        130,
        -466,
        -4166,
        374,
        -819,
        -3819,
        1658,
        11861,
        -7172,
        839,
        -4589,
        3256,
        -3582,
        -3769,
        -2243,
        -2562,
        3779,
        -3078,
        661,
        3008,
        22901,
        92,
        -2210,
        3675,
        32767,
        -6382,
        3322,
        -813,
        4494,
        -2369,
        -990,
        -2,
        -1882,
        3125,
        7169,
        218
      ],
      [
        -1274,
        -273,
        -226,
        -1492,
        92,
        -1152,
        -250,
        -1275,
        179,
        -1829,
        -827,
        147,
        460,
        -1800,
        547,
        275,
        -1363,
        -1658,
        -1357,
        113,
        501,
        -572,
        121,
        -93,
        -72,
        -1323,
        -561,
        490,
        -1396,
        -869,
        81,
        -357,
        -1554,
        -966,
        71,
        290,
        -943,
        -699,
        584,
        -1072,
        -1011,
        -693,
        -232,
        -1507,
        -979,
        -1409,
        -50,
        -906,
        -1382,
        -346,
        -784,
        -1278,
        256,
        -89,
        -229,
        -85,
        -1749,
        -1375,
        487,
        -1641,
        405,
        -1231,
        80,
        -1796
      ],
      [
        1611,
        3253,
        -279,
        -1933,
        902,
        1784,
        -62,
        -437,
        2593,
        -2098,
        -6669,
        -917,
        725,
        2462,
        314,
        1074,
        -368,
        -1083,
        -4246,
        -5495,
        -327,
        627,
        -877,
        -7974,
        2515,
        -79,
        2536,
        2922,
        3189,
        -56,
        -8309,
        -5418,
        -233,
        3073,
        2052,
        -7401,
        1293,
        1098,
        2444,
        2828,
        -11434,
        562,
        -1506,
        502,
        -514,
        1328,
        -90,
        -1564,
        -8230,
        -331,
        1979,
        42,
        -9808,
        598,
        -840,
        -417,
        1910,
        -754,
        -4580,
        -1582,
        1196,
        1750,
        -2985,
        -390
      ],
      [
        4092,
        -5129,
        -3280,
        2763,
        3581,
        -9680,
        387,
        -589,
        -7677,
        1757,
        -784,
        2283,
        -343,
        -8895,
        1639,
        2786,
        3551,
        9915,
        316,
        11480,
        2081,
        -8311,
        -604,
        -626,
        -3670,
        -1180,
        -2559,
        1851,
        -5204,
        982,
        -128,
        -1526,
        -1414,
        -7540,
        -6682,
        1694,
        -365,
        964,
        -9082,
        -9742,
        407,
        -760,
        420,
        -5882,
        -3237,
        -9988,
        1263,
        -1170,
        5921,
        -1885,
        -587,
        -1031,
        12244,
        -412,
        -30,
        -2529,
        3358,
        -7039,
        7905,
        -1710,
        1755,
        871,
        6793,
        -1664
      ],
      [
        -1158,
        -513,
        -165,
        -978,
        -1705,
        932,
        -1192,
        -1766,
        297,
        185,
        -1007,
        -1711,
        -224,
        1145,
        -1104,
        381,
        258,
        -1093,
        -1509,
        -798,
        -151,
        -1014,
        -1577,
        -386,
        412,
        -49,
        -741,
        -166,
        -63,
        -1211,
        -2578,
        -1289,
        -962,
        -653,
        -591,
        -1733,
        -2259,
        -1316,
        -2287,
        -1873,
        600,
        -2037,
        20,
        -1647,
        470,
        -1865,
        -1133,
        -1506,
        -226,
        -416,
        -438,
        756,
        -241,
        -1664,
        -631,
        -875,
        -835,
        669,
        -1146,
        -527,
        -2117,
        313,
        -105,
        -19
      ],
      [
        5772,
        -6454,
        -7654,
        3051,
        3671,
        -6063,
        1510,
        -4783,
        -8656,
        -615,
        -387,
        593,
        1039,
        -4502,
        -389,
        2268,
        5439,
        4947,
        -719,
        13517,
        -240,
        -10850,
        -356,
        -175,
        -2048,
        -1327,
        -5743,
        -1941,
        -385,
        301,
        675,
        -114,
        -150,
        -7545,
        -8249,
        -311,
        -1194,
        -1287,
        -5628,
        -11366,
        -2600,
        -151,
        -1772,
        -1066,
        -2686,
        -2433,
        1101,
        -1191,
        1240,
        -2688,
        -1446,
        1948,
        8345,
        -5471,
        -444,
        96,
        2835,
        -6205,
        -3123,
        -3552,
        2762,
        -2366,
        5160,
        -281
      ],
      [
        3695,
        -1500,
        1011,
        -6505,
        -484,
        752,
        -19948,
        -20033,
        1034,
        -10976,
        -4515,
        -10313,
        312,
        405,
        -6319,
        2107,
        -768,
        -2333,
        -4389,
        -15076,
        -10249,
        -919,
        -2806,
        -6157,
        5294,
        -1187,
        4254,
        3880,
        -1482,
        333,
        -136,
        -4220,
        -12466,
        -2894,
        2183,
        -8240,
        -987,
        -593,
        1140,
        3172,
        -8473,
        -112,
        1080,
        -2302,
        -2102,
        -163,
        -1652,
        -5061,
        -9930,
        -5686,
        -2237,
        -2320,
        -18637,
        -1018,
        -10740,
        482,
        4060,
        -1987,
        -11842,
        -6441,
        -7067,
        -627,
        -6965,
        -248
      ],
      [
        2971,
        -4904,
        -1513,
        4727,
        -5639,
        2135,
        1303,
        2554,
        3351,
        3952,
        2860,
        -1506,
        -575,
        6039,
        1499,
        -1769,
        -2618,
        6537,
        319,
        19973,
        -2353,
        -2763,
        -2057,
        -6064,
        2902,
        1144,
        2944,
        5743,
        -1139,
        -432,
        -3385,
        -8930,
        -4664,
        -1990,
        4945,
        3764,
        -5991,
        -2871,
        -6480,
        10239,
        4038,
        -5512,
        -4450,
        3742,
        4144,
        709,
        988,
        -1087,
        13080,
        -1133,
        -3328,
        2277,
        25029,
        -2773,
        -441,
        1151,
        1759,
        -5829,
        765,
        2238,
        -6185,
        -2622,
        7588,
        -1236
      ],
      [
        2001,
        -149,
        265,
        -1703,
        -1892,
        48,
        -15885,
        -12821,
        905,
        -7627,
        -8440,
        1067,
        2084,
        -321,
        -3156,
        230,
        -4963,
        281,
        -76,
        -5112,
        -2580,
        -416,
        1745,
        -13500,
        2638,
        452,
        3004,
        3915,
        3444,
        -1479,
        -12635,
        -1830,
        -1330,
        -1946,
        -349,
        -7100,
        -635,
        4562,
        1212,
        4030,
        -12270,
        2351,
        -2229,
        3230,
        -3792,
        -1497,
        2325,
        548,
        -10224,
        67,
        -996,
        996,
        -11614,
        -1214,
        604,
        -660,
        2554,
        -5502,
        -6205,
        464,
        -2530,
        472,
        -5797,
        337
      ],
      [
        1134,
        -4967,
        -428,
        -43,
        3332,
        -2774,
        -532,
        -3337,
        -1670,
        834,
        -333,
        3795,
        2169,
        -3139,
        1775,
        1367,
        2684,
        5995,
        -940,
        14798,
        923,
        -388,
        250,
        1269,
        -1775,
        -409,
        -498,
        59,
        -460,
        596,
        6,
        1824,
        12,
        -6865,
        -3916,
        3162,
        -4,
        -1142,
        -5053,
        -2104,
        59,
        254,
        1510,
        807,
        -98,
        -2939,
        4908,
        139,
        7115,
        -2437,
        -2390,
        2516,
        14059,
        -372,
        -102,
        -397,
        959,
        -6206,
        560,
        35,
        1693,
        -1352,
        6926,
        -723
      ],
      [
        2662,
        -2974,
        -4166,
        2055,
        1719,
        -6298,
        5358,
        659,
        -4627,
        2424,
        -338,
        1432,
        942,
        -3686,
        1974,
        2183,
        2208,
        5635,
        -399,
        12371,
        3855,
        -9985,
        393,
        343,
        -3857,
        -249,
        -3673,
        -2232,
        -281,
        1117,
        -299,
        310,
        224,
        -8176,
        -1095,
        3018,
        -876,
        874,
        -7095,
        -7701,
        -706,
        977,
        1335,
        -1165,
        134,
        -5145,
        3786,
        -1046,
        6462,
        -1359,
        -1833,
        3492,
        13777,
        -2974,
        -902,
        -385,
        1650,
        -6756,
        9446,
        -2380,
        1315,
        35,
        3779,
        402
      ],
      [
        -387,
        2401,
        358,
        4853,
        1949,
        1999,
        -4917,
        -278,
        -181,
        2556,
        2711,
        -981,
        553,
        -19082,
        -14432,
        541,
        -2870,
        -7065,
        -14179,
        -12766,
        2719,
        -3387,
        613,
        -10817,
        4636,
        -3075,
        4057,
        1905,
        5343,
        -592,
        -4580,
        -3869,
        1550,
        3068,
        -7566,
        -9984,
        -1379,
        10596,
        15502,
        -690,
        491,
        -3776,
        815,
        -4760,
        3711,
        2406,
        2699,
        407,
        -6914,
        2152,
        3452,
        -6805,
        -15246,
        463,
        602,
        753,
        67,
        3648,
        -5276,
        1293,
        -16798,
        1455,
        -3619,
        1745
      ],
      [
        1430,
        -1115,
        871,
        -293,
        1337,
        2841,
        -7053,
        -3830,
        -6,
        -3,
        -2356,
        -4442,
        724,
        372,
        -2479,
        2832,
        2679,
        -1695,
        -4952,
        -11286,
        -3267,
        2136,
        -698,
        -1525,
        2014,
        -843,
        757,
        3914,
        502,
        -992,
        -622,
        -718,
        -5636,
        366,
        2265,
        -6072,
        -3168,
        -1542,
        1746,
        3050,
        -7562,
        728,
        1948,
        -7301,
        442,
        -15,
        -2358,
        -120,
        -8616,
        -1282,
        16,
        -4476,
        -12734,
        -955,
        -3469,
        547,
        2392,
        1316,
        -11071,
        -4194,
        -316,
        -162,
        -5684,
        182
      ],
      [
        2552,
        -6880,
        -994,
        931,
        3120,
        -2798,
        2494,
        -3405,
        -2083,
        -764,
        -55,
        2269,
        -136,
        -3645,
        1204,
        2696,
        3047,
        9159,
        -854,
        16721,
        291,
        -9230,
        -1063,
        610,
        -1489,
        -2371,
        -68,
        457,
        -1393,
        -175,
        95,
        338,
        -1043,
        -5885,
        -1120,
        3695,
        -295,
        -1022,
        -4975,
        -3371,
        -429,
        157,
        399,
        345,
        -195,
        -3186,
        4263,
        -514,
        10775,
        -1330,
        -2410,
        2667,
        20110,
        -546,
        -161,
        -47,
        1043,
        -5805,
        2680,
        -922,
        1351,
        -2506,
        9228,
        -528
      ],
      [
        2610,
        4607,
        -93,
        -2781,
        -2874,
        -218,
        -9264,
        -9833,
        1739,
        -4696,
        -6947,
        -1719,
        1033,
        1607,
        -293,
        2861,
        -3256,
        -295,
        -4434,
        -9489,
        -9679,
        217,
        -46,
        -2055,
        3877,
        -2130,
        3676,
        4471,
        -1373,
        319,
        -8744,
        -3615,
        -7165,
        -1627,
        155,
        -4235,
        296,
        -2837,
        3225,
        2811,
        -8175,
        -1218,
        -1164,
        -3064,
        -1796,
        1500,
        2743,
        708,
        -8300,
        5,
        -1981,
        2102,
        -8593,
        -1005,
        -1926,
        -1021,
        2576,
        -1434,
        -8088,
        -3548,
        -844,
        -900,
        -4109,
        -1220
      ],
      [
        2390,
        -3676,
        -3284,
        3587,
        4466,
        -4980,
        2580,
        1911,
        -4185,
        363,
        -1524,
        1528,
        31,
        -4502,
        4023,
        1712,
        2499,
        6955,
        -122,
        13298,
        2865,
        -10402,
        89,
        49,
        -778,
        -941,
        -928,
        -66,
        -2645,
        649,
        -84,
        -874,
        -1685,
        -6647,
        -875,
        -869,
        -776,
        -699,
        -7440,
        -7060,
        372,
        -1545,
        176,
        -1644,
        -348,
        -3148,
        2644,
        -514,
        7313,
        -1728,
        -833,
        1935,
        14688,
        -2965,
        -1768,
        34,
        2279,
        -5976,
        5448,
        -1575,
        2588,
        -556,
        8169,
        -1415
      ],
      [
        276,
        4921,
        -212,
        -620,
        1497,
        4731,
        -642,
        -574,
        1627,
        -678,
        -6557,
        110,
        999,
        4778,
        -141,
        2360,
        3164,
        -970,
        -4111,
        -7557,
        600,
        -575,
        -158,
        -11370,
        1616,
        -1383,
        1305,
        131,
        4706,
        -755,
        -8558,
        -6631,
        -7,
        -1564,
        2224,
        -8435,
        839,
        345,
        5089,
        3134,
        -9396,
        611,
        16,
        1110,
        -3095,
        2431,
        112,
        -848,
        -11316,
        881,
        2576,
        2110,
        -12399,
        -266,
        -418,
        -679,
        1796,
        -2,
        -3771,
        -150,
        2004,
        2187,
        -4572,
        -294
      ],
      [
        138,
        -4193,
        -660,
        3076,
        2545,
        -2607,
        1841,
        -2161,
        -1935,
        -872,
        805,
        1842,
        4052,
        -452,
        2276,
        2330,
        1331,
        5972,
        -1627,
        13265,
        5375,
        -1900,
        -730,
        160,
        -3060,
        -157,
        4,
        1500,
        -1260,
        634,
        263,
        -46,
        1303,
        -7642,
        -4304,
        305,
        263,
        -460,
        -4824,
        -2522,
        -563,
        1236,
        -108,
        -641,
        -23,
        -1946,
        4920,
        -1389,
        1355,
        -1493,
        -1823,
        61,
        10611,
        -1021,
        652,
        -785,
        4271,
        -8048,
        7387,
        552,
        2964,
        338,
        3101,
        292
      ],
      [
        -5143,
        -1409,
        -339,
        -3084,
        8375,
        -5550,
        -18657,
        1989,
        -11513,
        361,
        4293,
        5452,
        2882,
        -2152,
        5357,
        -13357,
        -238,
        22474,
        3756,
        -5601,
        -361,
        489,
        -3144,
        1721,
        -468,
        6768,
        -4109,
        -3960,
        -15083,
        -849,
        -1850,
        1212,
        433,
        -1440,
        -12215,
        -11714,
        -6661,
        -5429,
        -17192,
        1117,
        1282,
        484,
        -3868,
        -9840,
        2408,
        -1895,
        -11899,
        -2211,
        -6951,
        -8619,
        -1841,
        -31923,
        14623,
        2088,
        731,
        -233,
        -5175,
        -1915,
        8384,
        197,
        -14734,
        2587,
        -6034,
        -387
      ],
      [
        -1757,
        2817,
        535,
        -680,
        -5659,
        2642,
        -1635,
        -1333,
        3779,
        -1981,
        -6017,
        -1098,
        -656,
        1124,
        874,
        -1244,
        -6002,
        -453,
        -1443,
        -2647,
        557,
        -150,
        -1258,
        -1482,
        2744,
        782,
        317,
        2993,
        4231,
        -1524,
        -10141,
        -4651,
        374,
        -765,
        -207,
        -6355,
        1124,
        -979,
        3001,
        3062,
        -663,
        264,
        -4669,
        1031,
        -2619,
        1470,
        361,
        -1142,
        -8332,
        399,
        -2207,
        -2239,
        -8990,
        687,
        781,
        1338,
        2171,
        -1794,
        -3641,
        -837,
        665,
        844,
        -2921,
        558
      ],
      [
        1235,
        -11597,
        -569,
        -155,
        1578,
        -9678,
        -8730,
        -9017,
        -5575,
        -14,
        832,
        2692,
        1688,
        2399,
        939,
        777,
        8209,
        -7980,
        -1052,
        -1359,
        1478,
        2710,
        -1273,
        -441,
        -19111,
        -360,
        -9790,
        -6397,
        -8431,
        314,
        -175,
        -1020,
        -1488,
        -11029,
        -220,
        -4103,
        402,
        -745,
        -10594,
        -8212,
        -233,
        965,
        1408,
        -3644,
        -4109,
        -19166,
        9300,
        -1550,
        -2013,
        -88,
        -1587,
        6139,
        -49,
        -5148,
        -2854,
        -860,
        1038,
        -7338,
        11596,
        -3441,
        2005,
        2007,
        -1253,
        1575
      ]
    ],
    "scale": 9.652302721893034e-05,
    "zero_point": 0,
    "shape": [
      32,
      64
    ],
    "type": "weight",
    "symmetric": true
  },
  "mlp.0.weight": {
    "data": [
      [
        8231,
        -3891,
        2335,
        4533,
        -9446,
        -3967,
        -1520,
        -15363,
        5300,
        3325,
        -2053,
        13988,
        2864,
        -7816,
        10802,
        1,
        14517,
        -5426,
        15755,
        -5895,
        5198,
        6743,
        -16326,
        -9224,
        4986,
        -2364,
        10170,
        -8605,
        4131,
        13052,
        -9150,
        12502
      ],
      [
        6465,
        -3648,
        5714,
        3775,
        -8409,
        -5292,
        -1232,
        -26035,
        3876,
        -999,
        -5550,
        12464,
        2801,
        -8607,
        10188,
        764,
        14644,
        -3583,
        13625,
        -4903,
        1998,
        4614,
        -16170,
        -10252,
        5082,
        -5284,
        8754,
        -9726,
        4341,
        15952,
        -8841,
        11519
      ],
      [
        9886,
        -6516,
        8234,
        322,
        -12670,
        -7244,
        -1273,
        -31437,
        1823,
        -1419,
        -8123,
        31544,
        68,
        -14109,
        9788,
        395,
        14463,
        -9140,
        17038,
        -12748,
        -427,
        8324,
        -32767,
        -11146,
        3073,
        -4552,
        8946,
        -15487,
        1607,
        11629,
        -14445,
        11973
      ],
      [
        7109,
        -6214,
        3732,
        1861,
        -8866,
        -6471,
        925,
        -25963,
        2587,
        -355,
        -6014,
        16545,
        -219,
        -9271,
        9530,
        1842,
        11800,
        -6086,
        17202,
        -8237,
        3035,
        2194,
        -21799,
        -10932,
        3252,
        -4803,
        7654,
        -13026,
        5372,
        11806,
        -10774,
        10367
      ],
      [
        8659,
        -7839,
        8870,
        5501,
        -12123,
        -7823,
        1119,
        -26014,
        3442,
        -1010,
        -7261,
        27393,
        2757,
        -11960,
        10721,
        1162,
        16913,
        -7272,
        22397,
        -12005,
        4813,
        9218,
        -29958,
        -14573,
        3366,
        -1778,
        9222,
        -15885,
        5567,
        14114,
        -11493,
        14639
      ],
      [
        -4817,
        11186,
        -6490,
        -15033,
        2195,
        12652,
        -1900,
        8134,
        -13237,
        -3643,
        12910,
        -13778,
        975,
        147,
        -920,
        496,
        -3165,
        22835,
        259,
        13936,
        -9392,
        -4872,
        289,
        5361,
        -13684,
        13119,
        -6418,
        -951,
        2740,
        -16275,
        869,
        -14441
      ],
      [
        -3555,
        11001,
        -2706,
        -6430,
        4227,
        10550,
        733,
        11243,
        -7169,
        -843,
        13938,
        -10367,
        -91,
        1481,
        -177,
        -2511,
        -3700,
        24704,
        37,
        12622,
        -4255,
        -2310,
        664,
        8751,
        -6353,
        15171,
        -2870,
        1799,
        2050,
        -10981,
        3093,
        -11152
      ],
      [
        -4273,
        10036,
        -3540,
        -6875,
        3528,
        10933,
        -2808,
        10220,
        -5876,
        1718,
        11753,
        -8597,
        1069,
        2518,
        463,
        -1470,
        -2501,
        23232,
        34,
        11131,
        -4366,
        -2522,
        786,
        6816,
        -8012,
        13203,
        -4207,
        1053,
        2690,
        -11261,
        2919,
        -9730
      ]
    ],
    "scale": 6.179831835422276e-05,
    "zero_point": 0,
    "shape": [
      8,
      32
    ],
    "type": "weight",
    "symmetric": true
  },
  "mlp.0.bias": {
    "data": [
      26399,
      30514,
      30088,
      28419,
      32767,
      20272,
      11465,
      11253
    ],
    "scale": 1.0237291013695706e-05,
    "zero_point": 0,
    "shape": [
      8
    ],
    "type": "bias",
    "symmetric": true
  },
  "mlp.3.weight": {
    "data": [
      [
        -22662,
        -23995,
        -30100,
        -28411,
        -21932,
        32767,
        27927,
        30220
      ]
    ],
    "scale": 3.233242468572418e-05,
    "zero_point": 0,
    "shape": [
      1,
      8
    ],
    "type": "weight",
    "symmetric": true
  },
  "mlp.3.bias": {
    "data": [
      32767
    ],
    "scale": 1.1713442325257337e-05,
    "zero_point": 0,
    "shape": [
      1
    ],
    "type": "bias",
    "symmetric": true
  }
}